<?xml version="1.0"?>
<opencv_storage>
<cascade>
  <stageType>BOOST</stageType>
  <featureType>LBP</featureType>
  <height>25</height>
  <width>25</width>
  <stageParams>
    <boostType>GAB</boostType>
    <minHitRate>9.9900001287460327e-001</minHitRate>
    <maxFalseAlarm>1.9999999552965164e-002</maxFalseAlarm>
    <weightTrimRate>9.4999999999999996e-001</weightTrimRate>
    <maxDepth>1</maxDepth>
    <maxWeakCount>100</maxWeakCount></stageParams>
  <featureParams>
    <maxCatCount>256</maxCatCount>
    <featSize>1</featSize></featureParams>
  <stageNum>10</stageNum>
  <stages>
    <!-- stage 0 -->
    <_>
      <maxWeakCount>5</maxWeakCount>
      <stageThreshold>1.1167433261871338e+000</stageThreshold>
      <weakClassifiers>
        <_>
          <internalNodes>
            0 -1 38 -2 2147483647 -16777494 -1 -488193 889913394
            -1339424769 2147453675</internalNodes>
          <leafValues>
            -9.6296298503875732e-001 9.7546499967575073e-001</leafValues></_>
        <_>
          <internalNodes>
            0 -1 22 -750259817 -117276394 -1795160803 989855874
            1275139240 672731201 1353541839 -4788805</internalNodes>
          <leafValues>
            -8.3773213624954224e-001 9.7119104862213135e-001</leafValues></_>
        <_>
          <internalNodes>
            0 -1 15 -18686001 -151363601 -110801 -62067 -1213005825
            -327809 -1074766065 -335851521</internalNodes>
          <leafValues>
            -8.3026647567749023e-001 9.5494627952575684e-001</leafValues></_>
        <_>
          <internalNodes>
            0 -1 28 1413870495 -786316481 402720784 -1626275566
            1076396239 318791845 -1971219522 -293958</internalNodes>
          <leafValues>
            -8.6688441038131714e-001 9.2853492498397827e-001</leafValues></_>
        <_>
          <internalNodes>
            0 -1 4 -750656582 1363476483 1090556113 1929482263
            -1589538685 -1014824959 9013967 2145362607</internalNodes>
          <leafValues>
            -8.6477178335189819e-001 8.9094853401184082e-001</leafValues></_></weakClassifiers></_>
    <!-- stage 1 -->
    <_>
      <maxWeakCount>7</maxWeakCount>
      <stageThreshold>7.5320422649383545e-001</stageThreshold>
      <weakClassifiers>
        <_>
          <internalNodes>
            0 -1 43 2147442687 -65538 -98306 -14106690 402593791
            2147450879 2147450879 -1073807362</internalNodes>
          <leafValues>
            -7.4707257747650146e-001 9.5532715320587158e-001</leafValues></_>
        <_>
          <internalNodes>
            0 -1 68 -4556811 1576998397 -1078263813 -1077968961
            -12943427 -1614840321 -1096089685 -1883284033</internalNodes>
          <leafValues>
            -6.1830967664718628e-001 9.2179393768310547e-001</leafValues></_>
        <_>
          <internalNodes>
            0 -1 3 2119339469 1150538269 906824585 -40024573 -771644497
            -1153185617 -246818213 -206546158</internalNodes>
          <leafValues>
            -7.1179312467575073e-001 8.3837151527404785e-001</leafValues></_>
        <_>
          <internalNodes>
            0 -1 70 1188233299 -656106560 553799811 -1140277046
            1073938721 2088896902 1843813327 -322391410</internalNodes>
          <leafValues>
            -8.2483112812042236e-001 7.1237546205520630e-001</leafValues></_>
        <_>
          <internalNodes>
            0 -1 67 354320357 -639655823 -955826161 -714521810
            -1856986645 -107900902 -1249015925 -1375795059</internalNodes>
          <leafValues>
            -7.9191076755523682e-001 7.3901730775833130e-001</leafValues></_>
        <_>
          <internalNodes>
            0 -1 13 -1877859869 345309192 -1862232815 -154860259
            -911854375 -551378912 -164320321 -960378231</internalNodes>
          <leafValues>
            -8.5923844575881958e-001 6.6105884313583374e-001</leafValues></_>
        <_>
          <internalNodes>
            0 -1 64 1363489651 1553989761 8394752 -826015016 1912668539
            1417692178 671242834 -593752562</internalNodes>
          <leafValues>
            -7.7464592456817627e-001 6.7888504266738892e-001</leafValues></_></weakClassifiers></_>
    <!-- stage 2 -->
    <_>
      <maxWeakCount>11</maxWeakCount>
      <stageThreshold>5.3805881738662720e-001</stageThreshold>
      <weakClassifiers>
        <_>
          <internalNodes>
            0 -1 30 -425 -318832897 -161 -1058340865 -35053 -184549385
            -34985 -352321537</internalNodes>
          <leafValues>
            -6.5667575597763062e-001 9.2889237403869629e-001</leafValues></_>
        <_>
          <internalNodes>
            0 -1 34 -67436545 -1073741825 -2049 -12801 -336527361 -1
            -65537 -1075085827</internalNodes>
          <leafValues>
            -6.4770352840423584e-001 8.3548283576965332e-001</leafValues></_>
        <_>
          <internalNodes>
            0 -1 75 -862999545 -2305 -285217169 1663301363 -288428314
            -150996993 -386937106 -522009089</internalNodes>
          <leafValues>
            -6.7390179634094238e-001 7.3784673213958740e-001</leafValues></_>
        <_>
          <internalNodes>
            0 -1 114 -77608016 -361748202 -1015711669 174244003
            -179158524 -1253023232 -688433690 365413371</internalNodes>
          <leafValues>
            -5.8392339944839478e-001 6.5292853116989136e-001</leafValues></_>
        <_>
          <internalNodes>
            0 -1 23 1151168767 -2138996719 1226903642 1430459002
            1602811388 1074364545 -1066856381 -276038742</internalNodes>
          <leafValues>
            -7.9288995265960693e-001 4.8340767621994019e-001</leafValues></_>
        <_>
          <internalNodes>
            0 -1 104 -665403188 2098151968 -1843244004 1075839003
            -2004205544 -368361468 -1071478614 -1332688373</internalNodes>
          <leafValues>
            -6.2909275293350220e-001 6.2675732374191284e-001</leafValues></_>
        <_>
          <internalNodes>
            0 -1 64 1945580031 -160516270 -321999233 -924001049
            928462647 -228191943 -832280771 -288588114</internalNodes>
          <leafValues>
            -5.2036345005035400e-001 7.3721051216125488e-001</leafValues></_>
        <_>
          <internalNodes>
            0 -1 59 -783882729 1086341329 218157393 1075415325
            -527752912 -2011037696 -58316748 -846465989</internalNodes>
          <leafValues>
            -6.1638134717941284e-001 6.2093901634216309e-001</leafValues></_>
        <_>
          <internalNodes>
            0 -1 55 -1153043553 489734288 606239 1166196751 -444431382
            537428104 277056684 -338954627</internalNodes>
          <leafValues>
            -7.2970038652420044e-001 5.1560270786285400e-001</leafValues></_>
        <_>
          <internalNodes>
            0 -1 88 -32715798 2115171856 1823420433 386011143 136418543
            -1912329194 1079972551 -76570498</internalNodes>
          <leafValues>
            -5.3372448682785034e-001 6.9451254606246948e-001</leafValues></_>
        <_>
          <internalNodes>
            0 -1 49 1819667 1077936163 1090608017 -901770767 135004179
            -1736128047 -1744305054 -477433317</internalNodes>
          <leafValues>
            -8.3264732360839844e-001 4.6142706274986267e-001</leafValues></_></weakClassifiers></_>
    <!-- stage 3 -->
    <_>
      <maxWeakCount>11</maxWeakCount>
      <stageThreshold>-1.3942593336105347e-001</stageThreshold>
      <weakClassifiers>
        <_>
          <internalNodes>
            0 -1 5 -572708118 -536871173 -2071592961 1074651777
            -536633102 -1241533567 -2141880165 1480960905</internalNodes>
          <leafValues>
            -7.6433122158050537e-001 9.1918021440505981e-001</leafValues></_>
        <_>
          <internalNodes>
            0 -1 27 22737903 -1803386745 4736 403316769 16795787
            1094779520 -2013244625 -403748216</internalNodes>
          <leafValues>
            -7.7243679761886597e-001 7.5576752424240112e-001</leafValues></_>
        <_>
          <internalNodes>
            0 -1 65 1073926353 1907372104 9193033 -1077278196 805311225
            -1603259902 2887304 -16775668</internalNodes>
          <leafValues>
            -4.5157608389854431e-001 8.6690443754196167e-001</leafValues></_>
        <_>
          <internalNodes>
            0 -1 92 -2130382416 -1660935920 84082768 -1786769392 442
            536881281 171974829 455811115</internalNodes>
          <leafValues>
            -5.7966578006744385e-001 6.8667942285537720e-001</leafValues></_>
        <_>
          <internalNodes>
            0 -1 45 -1879048112 -787217856 92537231 763456805
            -1073697640 -1333755904 159786171 438837672</internalNodes>
          <leafValues>
            -5.5891638994216919e-001 6.9709712266921997e-001</leafValues></_>
        <_>
          <internalNodes>
            0 -1 76 -804945720 -1783070656 4104 -787148544 1073783017
            277479424 167774378 990716058</internalNodes>
          <leafValues>
            -6.0002654790878296e-001 6.3740110397338867e-001</leafValues></_>
        <_>
          <internalNodes>
            0 -1 79 -230569027 1968259107 1157648707 -1521147373
            -1568356192 1350574347 203712642 -1377845046</internalNodes>
          <leafValues>
            -7.5427401065826416e-001 4.9997830390930176e-001</leafValues></_>
        <_>
          <internalNodes>
            0 -1 94 -866068568 -1649776928 1535037276 -1280311112
            1644170170 167933616 1228609515 -340065787</internalNodes>
          <leafValues>
            -5.9566509723663330e-001 6.9135451316833496e-001</leafValues></_>
        <_>
          <internalNodes>
            0 -1 16 -532621865 -955139955 570950004 -526581367 -90639471
            1288735151 1636106259 -36863716</internalNodes>
          <leafValues>
            -7.3472929000854492e-001 5.5994945764541626e-001</leafValues></_>
        <_>
          <internalNodes>
            0 -1 39 -1879014016 1900118084 562049416 -1790639736
            -939409490 335552676 403800712 1191903439</internalNodes>
          <leafValues>
            -7.4486905336380005e-001 6.0700273513793945e-001</leafValues></_>
        <_>
          <internalNodes>
            0 -1 101 -250563654 -779026300 822218754 1426231425 41122
            -1667104768 168460862 722282634</internalNodes>
          <leafValues>
            -6.7862957715988159e-001 6.1784863471984863e-001</leafValues></_></weakClassifiers></_>
    <!-- stage 4 -->
    <_>
      <maxWeakCount>12</maxWeakCount>
      <stageThreshold>7.3770403861999512e-001</stageThreshold>
      <weakClassifiers>
        <_>
          <internalNodes>
            0 -1 7 -1286 -536875009 -587022 1340079103 -285213966
            1308483583 -524297 1331560447</internalNodes>
          <leafValues>
            -7.0099669694900513e-001 9.1128253936767578e-001</leafValues></_>
        <_>
          <internalNodes>
            0 -1 35 -16973905 -190251147 -285290681 -17932417 -16900642
            -379393 -50393761 -33604257</internalNodes>
          <leafValues>
            -6.4031422138214111e-001 8.0674016475677490e-001</leafValues></_>
        <_>
          <internalNodes>
            0 -1 57 -1875413133 -66056064 -249548493 -2004458976
            1797271827 -925819887 2030644242 -353841608</internalNodes>
          <leafValues>
            -6.9981431961059570e-001 7.2606527805328369e-001</leafValues></_>
        <_>
          <internalNodes>
            0 -1 84 1426440610 -1861138397 1350660508 -1089744223
            -491606359 537003139 -96228991 -642800949</internalNodes>
          <leafValues>
            -6.2037670612335205e-001 6.8814855813980103e-001</leafValues></_>
        <_>
          <internalNodes>
            0 -1 10 1347552196 -784097079 2126107102 566575562
            2060584334 1514842793 539593662 1779607176</internalNodes>
          <leafValues>
            -7.7174425125122070e-001 4.8247545957565308e-001</leafValues></_>
        <_>
          <internalNodes>
            0 -1 74 -799783842 1464139974 220471766 1422364695
            -1609915718 -1891630963 -217914904 974824362</internalNodes>
          <leafValues>
            -6.7203074693679810e-001 5.2346092462539673e-001</leafValues></_>
        <_>
          <internalNodes>
            0 -1 21 1938286173 -795172793 -1054715828 1149272576
            801128580 1480822849 490995786 -45683797</internalNodes>
          <leafValues>
            -6.1582988500595093e-001 5.6601148843765259e-001</leafValues></_>
        <_>
          <internalNodes>
            0 -1 73 998511479 -1270593344 1091109700 -804232040
            272894377 905975872 866134409 -124247064</internalNodes>
          <leafValues>
            -7.5528508424758911e-001 4.3410348892211914e-001</leafValues></_>
        <_>
          <internalNodes>
            0 -1 83 544933995 2000562812 2147039918 2004142764 485368558
            500479950 1693465184 -45811832</internalNodes>
          <leafValues>
            -5.7770437002182007e-001 6.3320368528366089e-001</leafValues></_>
        <_>
          <internalNodes>
            0 -1 42 -1298998785 461545473 34628423 -361725759
            -2138947129 -1038212478 1451837707 -105420729</internalNodes>
          <leafValues>
            -7.3935985565185547e-001 4.6266266703605652e-001</leafValues></_>
        <_>
          <internalNodes>
            0 -1 77 1371590876 1358991360 1663049958 -1757150984
            -532577656 -260038656 16910536 51060736</internalNodes>
          <leafValues>
            -6.1448800563812256e-001 6.1578983068466187e-001</leafValues></_>
        <_>
          <internalNodes>
            0 -1 82 1537467320 8634455 268615754 126396672 1359405700
            1124335649 -2128961464 227134147</internalNodes>
          <leafValues>
            -8.5299170017242432e-001 4.1617634892463684e-001</leafValues></_></weakClassifiers></_>
    <!-- stage 5 -->
    <_>
      <maxWeakCount>14</maxWeakCount>
      <stageThreshold>6.8744492530822754e-001</stageThreshold>
      <weakClassifiers>
        <_>
          <internalNodes>
            0 -1 41 -71631873 -1140885505 -129 -1073774593 -201654273
            -1157693443 -65537 -17097251</internalNodes>
          <leafValues>
            -3.6193028092384338e-001 9.0925091505050659e-001</leafValues></_>
        <_>
          <internalNodes>
            0 -1 81 -408420832 -117964874 -273743901 -994575121
            -290494557 -273698818 -1364284433 82439151</internalNodes>
          <leafValues>
            -6.1673611402511597e-001 7.3451966047286987e-001</leafValues></_>
        <_>
          <internalNodes>
            0 -1 64 712406067 787393142 -286347649 -1064546594
            2002202896 1065236790 1743011646 -321984546</internalNodes>
          <leafValues>
            -5.7017320394515991e-001 6.2682569026947021e-001</leafValues></_>
        <_>
          <internalNodes>
            0 -1 40 1947291835 1506889879 -1856253482 -139357104
            201984990 958930184 -1996306214 -540966744</internalNodes>
          <leafValues>
            -6.1564248800277710e-001 5.8982163667678833e-001</leafValues></_>
        <_>
          <internalNodes>
            0 -1 86 -795867909 1358955536 538970800 -1222766567
            -268361521 1610875136 302008474 -82966272</internalNodes>
          <leafValues>
            -4.6918398141860962e-001 7.2722733020782471e-001</leafValues></_>
        <_>
          <internalNodes>
            0 -1 62 -964480993 -654065579 16847303 -180027319
            -2105302389 -1165811328 -1006533950 -937253237</internalNodes>
          <leafValues>
            -6.7884993553161621e-001 5.0831907987594604e-001</leafValues></_>
        <_>
          <internalNodes>
            0 -1 2 -823219474 -1000963452 25346336 1258383579 1627865099
            1627390098 1401127483 1464856583</internalNodes>
          <leafValues>
            -6.1293798685073853e-001 5.1998931169509888e-001</leafValues></_>
        <_>
          <internalNodes>
            0 -1 58 999637883 -1399454456 674833815 -1964859392
            1483501895 -1333460835 269243236 -1799767</internalNodes>
          <leafValues>
            -7.7662974596023560e-001 4.3691021203994751e-001</leafValues></_>
        <_>
          <internalNodes>
            0 -1 88 -1030488880 -1828136744 81940 -1849946048 1611169944
            419995776 1082131127 462227971</internalNodes>
          <leafValues>
            -6.8489998579025269e-001 4.9240604043006897e-001</leafValues></_>
        <_>
          <internalNodes>
            0 -1 51 1363267700 1499046053 -1325398764 -171765629
            -2079677217 1057884176 -1458271510 -1885173736</internalNodes>
          <leafValues>
            -6.7414295673370361e-001 4.8442715406417847e-001</leafValues></_>
        <_>
          <internalNodes>
            0 -1 29 21855724 -733047339 16881804 1143480321 -1061136335
            -1587083264 -528467933 -338982781</internalNodes>
          <leafValues>
            -8.5870206356048584e-001 3.7142688035964966e-001</leafValues></_>
        <_>
          <internalNodes>
            0 -1 11 1366323230 1426133179 -1056964460 -613789601
            -1323150654 1078726665 -1692227126 1871381148</internalNodes>
          <leafValues>
            -6.4592248201370239e-001 5.2023750543594360e-001</leafValues></_>
        <_>
          <internalNodes>
            0 -1 98 1969144816 -1051125745 1346453506 139125418
            437739664 -939519840 1797808777 232648846</internalNodes>
          <leafValues>
            -7.5279623270034790e-001 4.1737222671508789e-001</leafValues></_>
        <_>
          <internalNodes>
            0 -1 24 -1675566032 -1620934976 -2000693803 -639373980
            137275047 1252163495 1042153725 -574896993</internalNodes>
          <leafValues>
            -5.5727666616439819e-001 6.2432581186294556e-001</leafValues></_></weakClassifiers></_>
    <!-- stage 6 -->
    <_>
      <maxWeakCount>14</maxWeakCount>
      <stageThreshold>4.2738834023475647e-001</stageThreshold>
      <weakClassifiers>
        <_>
          <internalNodes>
            0 -1 47 2105489271 -320012562 1862205311 -1997865218
            2004824881 -285313027 527906583 -823197953</internalNodes>
          <leafValues>
            -3.3149170875549316e-001 9.0437155961990356e-001</leafValues></_>
        <_>
          <internalNodes>
            0 -1 56 -73412551 487122960 16781327 1057522049 -1056858112
            -796884860 8585384 134906123</internalNodes>
          <leafValues>
            -7.2471195459365845e-001 6.6856974363327026e-001</leafValues></_>
        <_>
          <internalNodes>
            0 -1 0 -1492397086 -1484750766 151027925 -1214922541
            2030224027 -1476394878 -1592160117 1239388643</internalNodes>
          <leafValues>
            -5.6940984725952148e-001 5.6164324283599854e-001</leafValues></_>
        <_>
          <internalNodes>
            0 -1 107 -714016268 1920028786 -1217375209 -718715834
            706882234 -1301879692 1377996459 189925539</internalNodes>
          <leafValues>
            -5.7517880201339722e-001 6.3339871168136597e-001</leafValues></_>
        <_>
          <internalNodes>
            0 -1 90 -633214838 1901529708 53591869 1902197823
            -1787379480 -42189820 -1529839414 -11411249</internalNodes>
          <leafValues>
            -4.8855462670326233e-001 6.2802338600158691e-001</leafValues></_>
        <_>
          <internalNodes>
            0 -1 103 -797779233 -615937334 -1186201793 50502185
            -1066364692 -721685184 76585915 -312765285</internalNodes>
          <leafValues>
            -3.7097567319869995e-001 7.6724648475646973e-001</leafValues></_>
        <_>
          <internalNodes>
            0 -1 17 373330652 1480852902 1057302453 -1085207519
            1181027563 -464765455 -837764358 -1339752416</internalNodes>
          <leafValues>
            -4.6870416402816772e-001 6.3645523786544800e-001</leafValues></_>
        <_>
          <internalNodes>
            0 -1 63 1565982546 787311972 710931510 -1067184904
            1446828803 225715450 2134785939 -352326994</internalNodes>
          <leafValues>
            -5.0534546375274658e-001 5.9748357534408569e-001</leafValues></_>
        <_>
          <internalNodes>
            0 -1 110 1087407832 -84930627 2146896693 -38528374 46140648
            -860325955 -1881440322 -1111292142</internalNodes>
          <leafValues>
            -4.8593223094940186e-001 6.4371907711029053e-001</leafValues></_>
        <_>
          <internalNodes>
            0 -1 80 1389439163 33628424 557843468 1484783624 69632
            1354760192 536920064 -187680438</internalNodes>
          <leafValues>
            -5.4041153192520142e-001 5.3083425760269165e-001</leafValues></_>
        <_>
          <internalNodes>
            0 -1 6 -1060447298 -2134867964 939884618 1075898754
            553847200 537067528 -1056370685 -486313877</internalNodes>
          <leafValues>
            -5.8599054813385010e-001 4.9334955215454102e-001</leafValues></_>
        <_>
          <internalNodes>
            0 -1 44 -762328498 1259946003 268442646 1937195267
            -2146456616 1275133960 537370827 593717843</internalNodes>
          <leafValues>
            -5.0954622030258179e-001 5.7826602458953857e-001</leafValues></_>
        <_>
          <internalNodes>
            0 -1 112 -186454016 691245462 18055450 1493541121 -503297830
            231870474 4429978 127916738</internalNodes>
          <leafValues>
            -6.6097223758697510e-001 4.4548985362052917e-001</leafValues></_>
        <_>
          <internalNodes>
            0 -1 78 1428256223 -489945884 67381930 1680038536 1913161010
            -2141183392 1189753514 -807754710</internalNodes>
          <leafValues>
            -5.1652067899703979e-001 5.8877539634704590e-001</leafValues></_></weakClassifiers></_>
    <!-- stage 7 -->
    <_>
      <maxWeakCount>13</maxWeakCount>
      <stageThreshold>4.3854853510856628e-001</stageThreshold>
      <weakClassifiers>
        <_>
          <internalNodes>
            0 -1 37 -285278209 -319881473 -65554 -923205892 2147434263
            -436240385 2147434342 -32897</internalNodes>
          <leafValues>
            -6.2770563364028931e-001 8.8658422231674194e-001</leafValues></_>
        <_>
          <internalNodes>
            0 -1 53 -58917837 1887435067 -539099393 2134883583 -16908801
            -1279264069 -865145138 -868220929</internalNodes>
          <leafValues>
            -4.5948776602745056e-001 7.2029185295104980e-001</leafValues></_>
        <_>
          <internalNodes>
            0 -1 71 1518358547 1413497152 1157759238 -335544316
            1610744211 2080446592 2410938 -930946902</internalNodes>
          <leafValues>
            -6.7985373735427856e-001 5.0618171691894531e-001</leafValues></_>
        <_>
          <internalNodes>
            0 -1 111 -800452948 -237820027 278659072 -1256906739
            -2138529624 281841671 -1165959010 1964118794</internalNodes>
          <leafValues>
            -6.2432712316513062e-001 5.0551307201385498e-001</leafValues></_>
        <_>
          <internalNodes>
            0 -1 72 -800730927 -754973606 -1983512449 -1929346688
            46207474 -276819774 53167563 -1960181621</internalNodes>
          <leafValues>
            -4.6793106198310852e-001 7.2685885429382324e-001</leafValues></_>
        <_>
          <internalNodes>
            0 -1 8 -998118570 -2147438591 -1610416110 -1458207729
            -1869037901 1217405064 -2013232991 1619247185</internalNodes>
          <leafValues>
            -7.3238486051559448e-001 4.2352697253227234e-001</leafValues></_>
        <_>
          <internalNodes>
            0 -1 89 -1073646341 1498447896 1361440971 1459880000 16555
            -1593796464 369232365 1526726727</internalNodes>
          <leafValues>
            -5.5217003822326660e-001 6.4941662549972534e-001</leafValues></_>
        <_>
          <internalNodes>
            0 -1 20 1560168540 490425493 -1439515203 464215817
            -1091677028 -688632235 -2136932614 -1100609770</internalNodes>
          <leafValues>
            -4.8122259974479675e-001 6.3421261310577393e-001</leafValues></_>
        <_>
          <internalNodes>
            0 -1 113 -716179456 1230438803 1342407519 148492427
            -381583292 -2002059256 -2128296807 3367091</internalNodes>
          <leafValues>
            -6.1030930280685425e-001 5.1737284660339355e-001</leafValues></_>
        <_>
          <internalNodes>
            0 -1 19 -1550605869 -515895095 -989560547 -160857855
            -503216049 281022925 1135378910 -1014710187</internalNodes>
          <leafValues>
            -7.3476678133010864e-001 4.0264061093330383e-001</leafValues></_>
        <_>
          <internalNodes>
            0 -1 36 1951686758 1360400449 1214648 286328116 -1031796024
            1795490064 -1072125271 843293019</internalNodes>
          <leafValues>
            -6.5434449911117554e-001 4.7503727674484253e-001</leafValues></_>
        <_>
          <internalNodes>
            0 -1 25 1430966718 -72607432 1592917227 1434554610 84852911
            -629653770 68046267 260535167</internalNodes>
          <leafValues>
            -5.3333991765975952e-001 5.7360666990280151e-001</leafValues></_>
        <_>
          <internalNodes>
            0 -1 93 -2113871394 -673904896 275076398 -149486456 7000280
            1350742632 355475963 -280800493</internalNodes>
          <leafValues>
            -4.5075654983520508e-001 6.5622854232788086e-001</leafValues></_></weakClassifiers></_>
    <!-- stage 8 -->
    <_>
      <maxWeakCount>15</maxWeakCount>
      <stageThreshold>-6.9256253540515900e-002</stageThreshold>
      <weakClassifiers>
        <_>
          <internalNodes>
            0 -1 48 992772095 437321727 -50952 -133889537 -1 671252674
            -1568530292 -49156</internalNodes>
          <leafValues>
            -5.3586494922637939e-001 8.8416838645935059e-001</leafValues></_>
        <_>
          <internalNodes>
            0 -1 1 899599564 -157627776 1619198216 -771014512 537129353
            -352288376 12665642 407853547</internalNodes>
          <leafValues>
            -6.5126806497573853e-001 6.6149789094924927e-001</leafValues></_>
        <_>
          <internalNodes>
            0 -1 60 944457075 -402095868 553705617 -931135454 1275610161
            -2004121598 671156243 -378368281</internalNodes>
          <leafValues>
            -7.0921158790588379e-001 4.6453094482421875e-001</leafValues></_>
        <_>
          <internalNodes>
            0 -1 96 1517939418 1400439201 -914202689 1124182303 16499040
            -285254576 -519001650 -78426481</internalNodes>
          <leafValues>
            -5.0354784727096558e-001 6.0118943452835083e-001</leafValues></_>
        <_>
          <internalNodes>
            0 -1 109 209765280 419430416 -2062302888 -29359852 545405166
            1654726788 699017484 -1665133184</internalNodes>
          <leafValues>
            -5.6743389368057251e-001 4.9900835752487183e-001</leafValues></_>
        <_>
          <internalNodes>
            0 -1 12 -16431361 827985922 476586330 1393295675 -796904242
            209732066 -1832323878 -108352918</internalNodes>
          <leafValues>
            -3.9853495359420776e-001 7.3592793941497803e-001</leafValues></_>
        <_>
          <internalNodes>
            0 -1 69 812658940 1077936193 -2113798142 -1073135295
            -2008973021 -938440704 -838827973 1072172940</internalNodes>
          <leafValues>
            -7.8528171777725220e-001 3.5459843277931213e-001</leafValues></_>
        <_>
          <internalNodes>
            0 -1 97 -2073341666 -1840970802 135135444 541760658
            -594738172 836829218 -930839928 -1599407446</internalNodes>
          <leafValues>
            -5.4861342906951904e-001 5.4373586177825928e-001</leafValues></_>
        <_>
          <internalNodes>
            0 -1 52 1409890588 -1852108592 268992659 754991553
            -2147219911 -931131070 -1686074687 -1140585749</internalNodes>
          <leafValues>
            -6.6197478771209717e-001 4.6323898434638977e-001</leafValues></_>
        <_>
          <internalNodes>
            0 -1 85 -2097096194 -1052732984 17825929 1394147906
            1073842328 -1106607984 27263153 1025589250</internalNodes>
          <leafValues>
            -5.8215117454528809e-001 4.9529799818992615e-001</leafValues></_>
        <_>
          <internalNodes>
            0 -1 54 1501059863 -655544593 -18061481 -930300330
            -1485424861 -453723266 1836464935 -52494337</internalNodes>
          <leafValues>
            -4.1309112310409546e-001 6.9340991973876953e-001</leafValues></_>
        <_>
          <internalNodes>
            0 -1 110 -1073730303 345773873 -988265731 -686288632
            1358969004 411126280 -2004853555 581183524</internalNodes>
          <leafValues>
            -6.0543584823608398e-001 5.1497572660446167e-001</leafValues></_>
        <_>
          <internalNodes>
            0 -1 87 1224790111 -1341062908 827328907 -1659830240
            -2121674581 -1325399487 167854234 -1090357503</internalNodes>
          <leafValues>
            -4.2210149765014648e-001 6.9928508996963501e-001</leafValues></_>
        <_>
          <internalNodes>
            0 -1 9 -754630404 -251199025 -1458031359 1361053709
            -1601697654 461963331 -368545393 2140016771</internalNodes>
          <leafValues>
            -6.4643234014511108e-001 4.6962809562683105e-001</leafValues></_>
        <_>
          <internalNodes>
            0 -1 106 -239542630 -140163454 2147368404 -1775697856 668347
            -1984266307 713488383 -1089535539</internalNodes>
          <leafValues>
            -4.6482333540916443e-001 6.3307678699493408e-001</leafValues></_></weakClassifiers></_>
    <!-- stage 9 -->
    <_>
      <maxWeakCount>17</maxWeakCount>
      <stageThreshold>5.5029672384262085e-001</stageThreshold>
      <weakClassifiers>
        <_>
          <internalNodes>
            0 -1 50 269791028 1025114096 -1544 -1 -129 1065353215
            536849656 -1074774792</internalNodes>
          <leafValues>
            -4.0684410929679871e-001 8.8474059104919434e-001</leafValues></_>
        <_>
          <internalNodes>
            0 -1 26 -367611681 -1039859485 419532869 -519995229
            251691439 -1732607544 -1006600105 -863632317</internalNodes>
          <leafValues>
            -5.7560789585113525e-001 6.5952152013778687e-001</leafValues></_>
        <_>
          <internalNodes>
            0 -1 100 -701976400 -242212846 1226047809 -850116605
            167967122 -494747516 1078919659 1325992479</internalNodes>
          <leafValues>
            -6.1059236526489258e-001 4.9069258570671082e-001</leafValues></_>
        <_>
          <internalNodes>
            0 -1 66 1317492343 -334445936 8422419 -398426096 571604995
            -1031526389 1158611083 -1696331006</internalNodes>
          <leafValues>
            -6.2659305334091187e-001 4.4954389333724976e-001</leafValues></_>
        <_>
          <internalNodes>
            0 -1 91 1527296178 -1252887974 143872087 -753596334
            -2063551317 -1040171006 1679841710 1602898903</internalNodes>
          <leafValues>
            -5.5849689245223999e-001 5.3047770261764526e-001</leafValues></_>
        <_>
          <internalNodes>
            0 -1 102 -763320166 1348698321 276898561 930173263
            -1608988452 144656396 -1270816672 2033438211</internalNodes>
          <leafValues>
            -5.7063132524490356e-001 5.0820463895797729e-001</leafValues></_>
        <_>
          <internalNodes>
            0 -1 108 277190624 -246364032 1342409106 -82503673
            1133030300 1092190456 684165358 1910472708</internalNodes>
          <leafValues>
            -5.6029438972473145e-001 4.9939584732055664e-001</leafValues></_>
        <_>
          <internalNodes>
            0 -1 99 1756579863 -267025402 33554471 -530738667 -515783997
            -400293631 -938745726 -293870013</internalNodes>
          <leafValues>
            -5.4018592834472656e-001 5.1449930667877197e-001</leafValues></_>
        <_>
          <internalNodes>
            0 -1 31 -1725828688 528679128 453301524 -175124462
            -1037844037 403210256 1184269731 1368105170</internalNodes>
          <leafValues>
            -5.1843899488449097e-001 5.6036108732223511e-001</leafValues></_>
        <_>
          <internalNodes>
            0 -1 61 505319833 1068509205 824263006 -652672968 828953303
            2134544400 -1232355026 -25120712</internalNodes>
          <leafValues>
            -6.5180319547653198e-001 4.5126953721046448e-001</leafValues></_>
        <_>
          <internalNodes>
            0 -1 33 -766819702 1281851786 -1995134175 1426419243
            -560231190 198680409 -1978219782 -364010850</internalNodes>
          <leafValues>
            -4.9415412545204163e-001 5.7693439722061157e-001</leafValues></_>
        <_>
          <internalNodes>
            0 -1 95 -352792862 1450876511 221949785 1471851252
            -1099048472 -1375783471 1073052126 -1353493674</internalNodes>
          <leafValues>
            -4.7653171420097351e-001 5.7508516311645508e-001</leafValues></_>
        <_>
          <internalNodes>
            0 -1 32 -710975492 -1043066368 1071259 965762068 1208621276
            -1375206784 276834238 1510629550</internalNodes>
          <leafValues>
            -5.6807869672775269e-001 4.9139863252639771e-001</leafValues></_>
        <_>
          <internalNodes>
            0 -1 46 969655449 -938323407 536969737 -830234100 1212675
            -74219483 -536681469 -89420909</internalNodes>
          <leafValues>
            -5.6873172521591187e-001 4.7684621810913086e-001</leafValues></_>
        <_>
          <internalNodes>
            0 -1 18 -1761554012 -676250494 1203681131 -240548628 2611709
            -1355852425 1796151949 -1996291066</internalNodes>
          <leafValues>
            -4.6185818314552307e-001 6.2835937738418579e-001</leafValues></_>
        <_>
          <internalNodes>
            0 -1 14 84497371 1086918658 538574890 -1064042121
            -1072942449 -801078642 1393107603 -624410175</internalNodes>
          <leafValues>
            -6.0853362083435059e-001 4.7791886329650879e-001</leafValues></_>
        <_>
          <internalNodes>
            0 -1 105 -583645999 -2049801075 -1540345711 477628075
            -1904731928 -1616897811 -861923622 1209074655</internalNodes>
          <leafValues>
            -5.2599555253982544e-001 5.6764334440231323e-001</leafValues></_></weakClassifiers></_></stages>
  <features>
    <_>
      <rect>
        0 0 4 5</rect></_>
    <_>
      <rect>
        0 1 4 8</rect></_>
    <_>
      <rect>
        0 2 2 6</rect></_>
    <_>
      <rect>
        0 2 5 6</rect></_>
    <_>
      <rect>
        0 2 8 7</rect></_>
    <_>
      <rect>
        0 3 7 7</rect></_>
    <_>
      <rect>
        0 4 2 6</rect></_>
    <_>
      <rect>
        0 8 7 4</rect></_>
    <_>
      <rect>
        0 9 7 4</rect></_>
    <_>
      <rect>
        0 10 4 5</rect></_>
    <_>
      <rect>
        0 12 8 4</rect></_>
    <_>
      <rect>
        0 13 5 4</rect></_>
    <_>
      <rect>
        0 19 3 2</rect></_>
    <_>
      <rect>
        1 0 7 5</rect></_>
    <_>
      <rect>
        1 1 4 4</rect></_>
    <_>
      <rect>
        1 3 5 6</rect></_>
    <_>
      <rect>
        1 7 7 6</rect></_>
    <_>
      <rect>
        1 12 1 1</rect></_>
    <_>
      <rect>
        1 13 2 1</rect></_>
    <_>
      <rect>
        2 0 4 5</rect></_>
    <_>
      <rect>
        2 8 2 1</rect></_>
    <_>
      <rect>
        2 9 2 4</rect></_>
    <_>
      <rect>
        2 9 5 4</rect></_>
    <_>
      <rect>
        2 9 6 5</rect></_>
    <_>
      <rect>
        2 14 2 1</rect></_>
    <_>
      <rect>
        2 14 2 2</rect></_>
    <_>
      <rect>
        3 4 3 4</rect></_>
    <_>
      <rect>
        3 6 3 5</rect></_>
    <_>
      <rect>
        3 9 6 4</rect></_>
    <_>
      <rect>
        3 10 3 3</rect></_>
    <_>
      <rect>
        3 11 4 2</rect></_>
    <_>
      <rect>
        3 15 2 1</rect></_>
    <_>
      <rect>
        3 19 3 2</rect></_>
    <_>
      <rect>
        4 3 2 2</rect></_>
    <_>
      <rect>
        4 3 4 6</rect></_>
    <_>
      <rect>
        4 5 2 5</rect></_>
    <_>
      <rect>
        4 6 2 1</rect></_>
    <_>
      <rect>
        4 8 3 3</rect></_>
    <_>
      <rect>
        4 9 6 3</rect></_>
    <_>
      <rect>
        4 12 1 1</rect></_>
    <_>
      <rect>
        4 15 5 2</rect></_>
    <_>
      <rect>
        5 3 3 6</rect></_>
    <_>
      <rect>
        5 7 2 4</rect></_>
    <_>
      <rect>
        5 10 4 3</rect></_>
    <_>
      <rect>
        6 1 2 2</rect></_>
    <_>
      <rect>
        6 4 4 1</rect></_>
    <_>
      <rect>
        6 9 2 2</rect></_>
    <_>
      <rect>
        6 9 3 2</rect></_>
    <_>
      <rect>
        6 9 5 4</rect></_>
    <_>
      <rect>
        6 10 3 2</rect></_>
    <_>
      <rect>
        6 12 5 3</rect></_>
    <_>
      <rect>
        6 15 5 2</rect></_>
    <_>
      <rect>
        7 0 5 3</rect></_>
    <_>
      <rect>
        7 1 6 5</rect></_>
    <_>
      <rect>
        7 7 2 2</rect></_>
    <_>
      <rect>
        7 7 5 6</rect></_>
    <_>
      <rect>
        7 8 6 5</rect></_>
    <_>
      <rect>
        7 9 3 2</rect></_>
    <_>
      <rect>
        7 10 3 2</rect></_>
    <_>
      <rect>
        7 11 2 1</rect></_>
    <_>
      <rect>
        7 12 3 2</rect></_>
    <_>
      <rect>
        7 15 4 2</rect></_>
    <_>
      <rect>
        8 1 5 5</rect></_>
    <_>
      <rect>
        8 8 2 2</rect></_>
    <_>
      <rect>
        8 9 3 2</rect></_>
    <_>
      <rect>
        8 10 4 1</rect></_>
    <_>
      <rect>
        8 11 3 2</rect></_>
    <_>
      <rect>
        9 0 5 7</rect></_>
    <_>
      <rect>
        9 1 5 8</rect></_>
    <_>
      <rect>
        9 3 3 4</rect></_>
    <_>
      <rect>
        9 9 2 3</rect></_>
    <_>
      <rect>
        9 9 3 3</rect></_>
    <_>
      <rect>
        9 10 3 1</rect></_>
    <_>
      <rect>
        9 12 3 2</rect></_>
    <_>
      <rect>
        10 0 5 4</rect></_>
    <_>
      <rect>
        10 0 5 6</rect></_>
    <_>
      <rect>
        11 7 2 1</rect></_>
    <_>
      <rect>
        11 9 3 1</rect></_>
    <_>
      <rect>
        11 10 1 2</rect></_>
    <_>
      <rect>
        12 5 4 5</rect></_>
    <_>
      <rect>
        12 6 1 4</rect></_>
    <_>
      <rect>
        13 0 4 7</rect></_>
    <_>
      <rect>
        13 1 4 8</rect></_>
    <_>
      <rect>
        13 7 1 4</rect></_>
    <_>
      <rect>
        13 7 4 6</rect></_>
    <_>
      <rect>
        13 8 2 1</rect></_>
    <_>
      <rect>
        13 9 2 1</rect></_>
    <_>
      <rect>
        13 11 2 1</rect></_>
    <_>
      <rect>
        14 7 2 1</rect></_>
    <_>
      <rect>
        14 10 2 1</rect></_>
    <_>
      <rect>
        14 15 2 2</rect></_>
    <_>
      <rect>
        15 4 2 2</rect></_>
    <_>
      <rect>
        15 7 2 1</rect></_>
    <_>
      <rect>
        15 8 1 1</rect></_>
    <_>
      <rect>
        15 9 2 1</rect></_>
    <_>
      <rect>
        15 13 2 1</rect></_>
    <_>
      <rect>
        15 14 2 2</rect></_>
    <_>
      <rect>
        15 17 1 1</rect></_>
    <_>
      <rect>
        16 1 3 8</rect></_>
    <_>
      <rect>
        16 4 2 4</rect></_>
    <_>
      <rect>
        16 5 2 2</rect></_>
    <_>
      <rect>
        16 6 1 2</rect></_>
    <_>
      <rect>
        16 13 1 2</rect></_>
    <_>
      <rect>
        16 13 2 2</rect></_>
    <_>
      <rect>
        16 15 2 1</rect></_>
    <_>
      <rect>
        16 17 3 2</rect></_>
    <_>
      <rect>
        17 5 1 2</rect></_>
    <_>
      <rect>
        17 7 2 2</rect></_>
    <_>
      <rect>
        17 9 1 1</rect></_>
    <_>
      <rect>
        17 9 2 1</rect></_>
    <_>
      <rect>
        17 11 2 1</rect></_>
    <_>
      <rect>
        17 12 1 1</rect></_>
    <_>
      <rect>
        18 8 1 3</rect></_>
    <_>
      <rect>
        19 1 2 5</rect></_>
    <_>
      <rect>
        19 1 2 8</rect></_></features></cascade>
</opencv_storage>
